digraph Tree {
node [shape=box, style="rounded", color="black", fontname="helvetica"] ;
edge [fontname="helvetica"] ;
0 [label="price <= 462500.0\nsquared_error = 14247599793.8\nsamples = 501\nvalue = 435945.1"] ;
1 [label="price <= 357500.0\nsquared_error = 3409608458.3\nsamples = 304\nvalue = 357303.6"] ;
0 -> 1 [labeldistance=2.5, labelangle=45, headlabel="True"] ;
2 [label="size <= 38.0\nsquared_error = 1201901718.0\nsamples = 138\nvalue = 303156.7"] ;
1 -> 2 ;
3 [label="distance2 <= 5.2\nsquared_error = 304818560.4\nsamples = 51\nvalue = 264756.1"] ;
2 -> 3 ;
4 [label="squared_error = 0.0\nsamples = 37\nvalue = 275000.0"] ;
3 -> 4 ;
5 [label="squared_error = 0.0\nsamples = 14\nvalue = 235000.0"] ;
3 -> 5 ;
6 [label="price <= 332500.0\nsquared_error = 307064471.9\nsamples = 87\nvalue = 326481.5"] ;
2 -> 6 ;
7 [label="price <= 307500.0\nsquared_error = 114808593.8\nsamples = 52\nvalue = 313937.5"] ;
6 -> 7 ;
8 [label="squared_error = 0.0\nsamples = 17\nvalue = 300000.0"] ;
7 -> 8 ;
9 [label="nearby rating <= 4.0\nsquared_error = 23923104.3\nsamples = 35\nvalue = 321037.7"] ;
7 -> 9 ;
10 [label="squared_error = 0.0\nsamples = 16\nvalue = 315000.0"] ;
9 -> 10 ;
11 [label="squared_error = 0.0\nsamples = 19\nvalue = 325000.0"] ;
9 -> 11 ;
12 [label="distance1 <= 3.4\nsquared_error = 24925619.8\nsamples = 35\nvalue = 344727.3"] ;
6 -> 12 ;
13 [label="squared_error = 0.0\nsamples = 16\nvalue = 340000.0"] ;
12 -> 13 ;
14 [label="squared_error = 0.0\nsamples = 19\nvalue = 350000.0"] ;
12 -> 14 ;
15 [label="price <= 412500.0\nsquared_error = 650986189.5\nsamples = 166\nvalue = 403563.0"] ;
1 -> 15 ;
16 [label="price <= 392500.0\nsquared_error = 160312500.0\nsamples = 102\nvalue = 386250.0"] ;
15 -> 16 ;
17 [label="price <= 370000.0\nsquared_error = 52132964.0\nsamples = 61\nvalue = 376842.1"] ;
16 -> 17 ;
18 [label="squared_error = 0.0\nsamples = 15\nvalue = 365000.0"] ;
17 -> 18 ;
19 [label="distance2 <= 4.2\nsquared_error = 15837290.0\nsamples = 46\nvalue = 380202.7"] ;
17 -> 19 ;
20 [label="size <= 48.0\nsquared_error = 6184922.9\nsamples = 32\nvalue = 377755.1"] ;
19 -> 20 ;
21 [label="squared_error = 0.0\nsamples = 15\nvalue = 375000.0"] ;
20 -> 21 ;
22 [label="squared_error = 0.0\nsamples = 17\nvalue = 380000.0"] ;
20 -> 22 ;
23 [label="squared_error = 0.0\nsamples = 14\nvalue = 385000.0"] ;
19 -> 23 ;
24 [label="squared_error = 0.0\nsamples = 41\nvalue = 400000.0"] ;
16 -> 24 ;
25 [label="age <= 138.5\nsquared_error = 107562811.2\nsamples = 64\nvalue = 433031.9"] ;
15 -> 25 ;
26 [label="price <= 430000.0\nsquared_error = 18924816.5\nsamples = 49\nvalue = 427535.2"] ;
25 -> 26 ;
27 [label="squared_error = 0.0\nsamples = 35\nvalue = 425000.0"] ;
26 -> 27 ;
28 [label="squared_error = 0.0\nsamples = 14\nvalue = 435000.0"] ;
26 -> 28 ;
29 [label="squared_error = 0.0\nsamples = 15\nvalue = 450000.0"] ;
25 -> 29 ;
30 [label="price <= 532500.0\nsquared_error = 7178556613.7\nsamples = 197\nvalue = 554663.5"] ;
0 -> 30 [labeldistance=2.5, labelangle=-45, headlabel="False"] ;
31 [label="nearby rating <= 4.2\nsquared_error = 96980395.6\nsamples = 93\nvalue = 479801.3"] ;
30 -> 31 ;
32 [label="squared_error = 0.0\nsamples = 75\nvalue = 475000.0"] ;
31 -> 32 ;
33 [label="squared_error = 0.0\nsamples = 18\nvalue = 500000.0"] ;
31 -> 33 ;
34 [label="size <= 96.0\nsquared_error = 3634270282.8\nsamples = 104\nvalue = 624875.8"] ;
30 -> 34 ;
35 [label="price <= 612000.0\nsquared_error = 566037649.2\nsamples = 87\nvalue = 598484.8"] ;
34 -> 35 ;
36 [label="age <= 99.5\nsquared_error = 179937500.0\nsamples = 53\nvalue = 581250.0"] ;
35 -> 36 ;
37 [label="squared_error = 0.0\nsamples = 20\nvalue = 565000.0"] ;
36 -> 37 ;
38 [label="size <= 76.5\nsquared_error = 46720492.1\nsamples = 33\nvalue = 590490.2"] ;
36 -> 38 ;
39 [label="squared_error = 0.0\nsamples = 13\nvalue = 599000.0"] ;
38 -> 39 ;
40 [label="squared_error = 0.0\nsamples = 20\nvalue = 585000.0"] ;
38 -> 40 ;
41 [label="squared_error = 0.0\nsamples = 34\nvalue = 625000.0"] ;
35 -> 41 ;
42 [label="squared_error = 0.0\nsamples = 17\nvalue = 745000.0"] ;
34 -> 42 ;
}